digraph Tree {
0 [label="X[0] <= 0.3150\ngini = 0.740686632579\nsamples = 37", shape="box"] ;
1 [label="X[2] <= -14.1545\ngini = 0.197530864198\nsamples = 9", shape="box"] ;
0 -> 1 ;
2 [label="gini = 0.0000\nsamples = 8\nvalue = [ 0.  0.  8.  0.]", shape="box"] ;
1 -> 2 ;
3 [label="gini = 0.0000\nsamples = 1\nvalue = [ 1.  0.  0.  0.]", shape="box"] ;
1 -> 3 ;
4 [label="X[1] <= 151.8235\ngini = 0.645408163265\nsamples = 28", shape="box"] ;
0 -> 4 ;
5 [label="X[0] <= 0.7820\ngini = 0.642361111111\nsamples = 24", shape="box"] ;
4 -> 5 ;
6 [label="X[3] <= 0.0409\ngini = 0.65625\nsamples = 16", shape="box"] ;
5 -> 6 ;
7 [label="X[2] <= -13.2360\ngini = 0.493827160494\nsamples = 9", shape="box"] ;
6 -> 7 ;
8 [label="gini = 0.0000\nsamples = 1\nvalue = [ 0.  0.  0.  1.]", shape="box"] ;
7 -> 8 ;
9 [label="gini = 0.4062\nsamples = 8\nvalue = [ 1.  6.  0.  1.]", shape="box"] ;
7 -> 9 ;
10 [label="gini = 0.4082\nsamples = 7\nvalue = [ 5.  0.  0.  2.]", shape="box"] ;
6 -> 10 ;
11 [label="gini = 0.2188\nsamples = 8\nvalue = [ 0.  1.  0.  7.]", shape="box"] ;
5 -> 11 ;
12 [label="gini = 0.0000\nsamples = 4\nvalue = [ 0.  4.  0.  0.]", shape="box"] ;
4 -> 12 ;
}